1403636581.063555 -0.003231 0.020369 0.079039 
1403636581.163556 -0.003677 0.020272 0.078327 
1403636581.313555 -0.003750 0.020149 0.077910 
1403636581.463556 -0.002644 0.022102 0.080181 
1403636581.613555 -0.002890 0.022400 0.079806 
1403636581.713556 -0.003054 0.022258 0.079717 
1403636581.863556 -0.003003 0.022276 0.079698 
1403636581.963556 -0.002887 0.022417 0.079841 
1403636582.113555 -0.002949 0.022266 0.079966 
1403636582.213556 -0.003011 0.022124 0.079705 
1403636582.363556 -0.003108 0.021708 0.079997 
1403636582.513556 -0.002697 0.021761 0.080395 
1403636582.663556 -0.002889 0.021915 0.080182 
1403636582.763556 -0.002871 0.021886 0.079911 
1403636582.863556 -0.002738 0.021952 0.080102 
1403636582.963556 -0.002708 0.022047 0.080101 
1403636583.113555 -0.002690 0.022422 0.080324 
1403636583.213556 -0.002965 0.022141 0.079956 
1403636583.363556 -0.003034 0.021999 0.079732 
1403636583.513556 -0.003005 0.021940 0.079682 
1403636583.663556 -0.003120 0.021994 0.079522 
1403636583.813555 -0.003140 0.021861 0.079437 
1403636583.963556 -0.003211 0.021783 0.079299 
1403636584.113555 -0.003130 0.021890 0.079386 
1403636584.213556 -0.002873 0.021923 0.079710 
1403636584.363556 -0.002757 0.021942 0.079915 
1403636584.463556 -0.002862 0.022013 0.080013 
1403636584.563555 -0.002964 0.022231 0.080083 
1403636584.663556 -0.002967 0.022211 0.080082 
1403636584.763556 -0.003057 0.022166 0.080033 
1403636584.863556 -0.003136 0.022103 0.079959 
1403636585.013556 -0.003145 0.022164 0.079924 
1403636585.163556 -0.003252 0.022080 0.079788 
1403636585.313555 -0.003359 0.021914 0.079494 
1403636585.463556 -0.003455 0.021844 0.079357 
1403636585.613555 -0.003437 0.021843 0.079388 
1403636585.713556 -0.003440 0.021859 0.079355 
1403636585.863556 -0.003422 0.021898 0.079410 
1403636586.013556 -0.003234 0.021981 0.079509 
1403636586.163556 -0.003185 0.021904 0.079477 
1403636586.313555 -0.003237 0.021940 0.079453 
1403636586.463556 -0.003291 0.022037 0.079479 
1403636586.613555 -0.003363 0.022069 0.079423 
1403636586.713556 -0.003408 0.022078 0.079577 
1403636586.863556 -0.003431 0.022105 0.079604 
1403636587.013556 -0.003434 0.022097 0.079535 
1403636587.163556 -0.003464 0.022044 0.079466 
1403636587.313555 -0.003433 0.022019 0.079468 
1403636587.463556 -0.003484 0.021995 0.079413 
1403636587.563555 -0.003381 0.022060 0.079413 
1403636587.663556 -0.003399 0.022046 0.079407 
1403636587.763556 -0.003465 0.021988 0.079327 
1403636587.863556 -0.003620 0.021961 0.079315 
1403636587.963556 -0.003575 0.021981 0.079372 
1403636588.113555 -0.003586 0.021933 0.079308 
1403636588.213556 -0.003564 0.021916 0.079315 
1403636588.363556 -0.003517 0.021959 0.079324 
1403636588.513556 -0.003460 0.021969 0.079358 
1403636588.663556 -0.003447 0.021944 0.079362 
1403636588.813555 -0.003451 0.021856 0.079331 
1403636588.963556 -0.003448 0.021852 0.079346 
1403636589.113555 -0.003439 0.021849 0.079374 
1403636589.213556 -0.003416 0.021860 0.079377 
1403636589.363556 -0.003416 0.021867 0.079339 
1403636589.463556 -0.003448 0.021886 0.079376 
1403636589.563555 -0.003451 0.021898 0.079357 
1403636589.663556 -0.003419 0.021903 0.079365 
1403636589.763556 -0.003430 0.021896 0.079339 
1403636589.863556 -0.003426 0.021909 0.079371 
1403636589.963556 -0.003424 0.021872 0.079370 
1403636590.063555 -0.003397 0.021852 0.079377 
1403636590.163556 -0.003405 0.021865 0.079365 
1403636590.313555 -0.003396 0.021875 0.079350 
1403636590.463556 -0.003303 0.021864 0.079334 
1403636590.613555 -0.003325 0.021872 0.079341 
1403636590.713556 -0.003297 0.021850 0.079362 
1403636590.863556 -0.003343 0.021855 0.079367 
1403636591.013556 -0.003360 0.021813 0.079359 
1403636591.163556 -0.003334 0.021813 0.079323 
1403636591.313555 -0.003315 0.021823 0.079370 
1403636591.463556 -0.003328 0.021771 0.079341 
1403636591.613555 -0.003332 0.021741 0.079355 
1403636591.713556 -0.003320 0.021701 0.079432 
1403636591.863556 -0.003321 0.021695 0.079452 
1403636592.013556 -0.003347 0.021709 0.079458 
1403636592.163556 -0.003386 0.021719 0.079406 
1403636592.313555 -0.003394 0.021738 0.079401 
1403636592.463556 -0.003396 0.021710 0.079454 
1403636592.563555 -0.003418 0.021710 0.079435 
1403636592.663556 -0.003388 0.021673 0.079428 
1403636592.813555 -0.003396 0.021575 0.079409 
1403636592.913555 -0.003384 0.021526 0.079425 
1403636593.013556 -0.003369 0.021529 0.079440 
1403636593.113555 -0.003357 0.021522 0.079435 
1403636593.213556 -0.003335 0.021515 0.079443 
1403636593.363556 -0.003324 0.021512 0.079415 
1403636593.513556 -0.003362 0.021575 0.079319 
1403636593.663556 -0.003428 0.021566 0.079284 
1403636593.813555 -0.003390 0.021507 0.079317 
1403636593.863556 -0.003373 0.021471 0.079339 
1403636593.963556 -0.003350 0.021466 0.079355 
1403636594.063555 -0.003354 0.021524 0.079360 
1403636594.163556 -0.003370 0.021518 0.079340 
1403636594.313555 -0.003336 0.021475 0.079355 
1403636594.463556 -0.003343 0.021462 0.079345 
1403636594.613555 -0.003344 0.021466 0.079359 
1403636594.713556 -0.003387 0.021445 0.079350 
1403636594.863556 -0.003417 0.021464 0.079269 
1403636595.013556 -0.003459 0.021519 0.079327 
1403636595.113555 -0.003429 0.021539 0.079366 
1403636595.213556 -0.003409 0.021526 0.079388 
1403636595.313555 -0.003396 0.021547 0.079381 
1403636595.413555 -0.003388 0.021557 0.079364 
1403636595.513556 -0.003389 0.021574 0.079400 
1403636595.663556 -0.003338 0.021558 0.079370 
1403636595.763556 -0.003342 0.021552 0.079370 
1403636595.863556 -0.003261 0.021507 0.079355 
1403636595.963556 -0.003304 0.021515 0.079352 
1403636596.063555 -0.003294 0.021489 0.079386 
