1403636581.063555 -0.376171 0.082443 -0.855265 
1403636581.163556 -0.319357 0.133905 -0.656365 
1403636581.313555 0.078606 1.205557 0.214675 
1403636581.463556 -0.013462 0.706674 0.042343 
1403636581.613555 -0.116264 1.238160 -0.220477 
1403636581.713556 -0.315970 1.073503 -0.704243 
1403636581.863556 -0.197015 1.225358 -0.410774 
1403636581.963556 -0.244367 1.324403 -0.546001 
1403636582.113555 -0.278322 1.221107 -0.631488 
1403636582.213556 -0.304342 1.156722 -0.683947 
1403636582.363556 -0.379543 1.300185 -0.896449 
1403636582.513556 -0.214189 0.213451 -0.382926 
1403636582.663556 -0.359974 3.320357 -0.946548 
1403636582.763556 -0.165245 2.257936 -0.452168 
1403636582.863556 -0.326549 2.222550 -0.842433 
1403636582.963556 -0.355282 2.486636 -0.909895 
1403636583.113555 -0.688238 2.185998 -1.751754 
1403636583.213556 -0.795664 1.489751 -2.003618 
1403636583.363556 -0.672293 1.440190 -1.709606 
1403636583.513556 -0.686107 1.414267 -1.748703 
1403636583.663556 -0.678221 1.410696 -1.725776 
1403636583.813555 -0.663840 1.392431 -1.688598 
1403636583.963556 -0.662803 1.370812 -1.683831 
1403636584.113555 -0.669578 1.233424 -1.689616 
1403636584.213556 -0.642679 1.274791 -1.612995 
1403636584.363556 -0.644856 1.036205 -1.602876 
1403636584.463556 -0.627380 0.842712 -1.559694 
1403636584.563555 -0.522478 0.502311 -1.281065 
1403636584.663556 -0.511463 0.570068 -1.251697 
1403636584.763556 -0.450779 0.452402 -1.085561 
1403636584.863556 -0.344298 0.241765 -0.794249 
1403636585.013556 -0.341256 0.154879 -0.785334 
1403636585.163556 -0.289776 0.252835 -0.656839 
1403636585.313555 -0.240410 0.273624 -0.527205 
1403636585.463556 -0.241601 0.276977 -0.530999 
1403636585.613555 -0.244903 0.304539 -0.539294 
1403636585.713556 -0.235636 0.322283 -0.514300 
1403636585.863556 -0.233950 0.312033 -0.508047 
1403636586.013556 -0.230154 0.326675 -0.498812 
1403636586.163556 -0.231525 0.357058 -0.502607 
1403636586.313555 -0.227586 0.360483 -0.491889 
1403636586.463556 -0.221014 0.333512 -0.474415 
1403636586.613555 -0.227977 0.435676 -0.499485 
1403636586.713556 -0.212189 0.387017 -0.455384 
1403636586.863556 -0.205532 0.386420 -0.436271 
1403636587.013556 -0.202657 0.305869 -0.429853 
1403636587.163556 -0.180632 0.243607 -0.365700 
1403636587.313555 -0.176276 0.251180 -0.353778 
1403636587.463556 -0.180165 0.250655 -0.358276 
1403636587.563555 -0.175491 0.226722 -0.332314 
1403636587.663556 -0.167816 0.229563 -0.311053 
1403636587.763556 -0.129332 0.257235 -0.203795 
1403636587.863556 -0.082903 0.308144 -0.077519 
1403636587.963556 -0.083808 0.326448 -0.078483 
1403636588.113555 -0.063500 0.268657 -0.024084 
1403636588.213556 -0.063928 0.271388 -0.024560 
1403636588.363556 -0.058590 0.286873 -0.010630 
1403636588.513556 -0.048445 0.307977 0.014544 
1403636588.663556 -0.048630 0.330970 0.013756 
1403636588.813555 -0.042319 0.349854 0.029436 
1403636588.963556 -0.042707 0.359077 0.028626 
1403636589.113555 -0.043646 0.366488 0.026402 
1403636589.213556 -0.043832 0.354387 0.026911 
1403636589.363556 -0.044018 0.366271 0.026535 
1403636589.463556 -0.037036 0.334863 0.043600 
1403636589.563555 -0.036742 0.327058 0.044463 
1403636589.663556 -0.034560 0.313492 0.049987 
1403636589.763556 -0.029047 0.233256 0.065382 
1403636589.863556 -0.029586 0.240979 0.064250 
1403636589.963556 -0.030261 0.241207 0.063398 
1403636590.063555 -0.029227 0.231431 0.064779 
1403636590.163556 -0.028891 0.230881 0.065147 
1403636590.313555 -0.028051 0.225431 0.066346 
1403636590.463556 -0.032910 0.264294 0.058164 
1403636590.613555 -0.033700 0.274255 0.056708 
1403636590.713556 -0.033115 0.273219 0.057684 
1403636590.863556 -0.032570 0.278246 0.058617 
1403636591.013556 -0.032952 0.283332 0.057657 
1403636591.163556 -0.033293 0.296091 0.056513 
1403636591.313555 -0.032164 0.313525 0.059178 
1403636591.463556 -0.033366 0.326037 0.056536 
1403636591.613555 -0.032758 0.321032 0.057355 
1403636591.713556 -0.031635 0.350202 0.059226 
1403636591.863556 -0.031484 0.353897 0.059500 
1403636592.013556 -0.031399 0.353281 0.059486 
1403636592.163556 -0.031411 0.351392 0.059581 
1403636592.313555 -0.031687 0.355066 0.059019 
1403636592.463556 -0.029108 0.315813 0.064627 
1403636592.563555 -0.029008 0.316438 0.064595 
1403636592.663556 -0.029270 0.324474 0.063695 
1403636592.813555 -0.030340 0.338221 0.061047 
1403636592.913555 -0.030626 0.342108 0.060257 
1403636593.013556 -0.023157 0.242273 0.078702 
1403636593.113555 -0.023023 0.243577 0.078878 
1403636593.213556 -0.023057 0.244835 0.078959 
1403636593.363556 -0.022760 0.237001 0.079728 
1403636593.513556 -0.022389 0.232971 0.080820 
1403636593.663556 -0.019808 0.209969 0.086854 
1403636593.813555 -0.019607 0.209763 0.087357 
1403636593.863556 -0.019875 0.210668 0.086938 
1403636593.963556 -0.020251 0.211581 0.086628 
1403636594.063555 -0.020433 0.216306 0.086090 
1403636594.163556 -0.019761 0.211324 0.087646 
1403636594.313555 -0.019204 0.206870 0.088875 
1403636594.463556 -0.018847 0.204174 0.089695 
1403636594.613555 -0.018359 0.202146 0.090454 
1403636594.713556 -0.015649 0.174459 0.096216 
1403636594.863556 -0.015457 0.178598 0.096266 
1403636595.013556 -0.011093 0.132696 0.106578 
1403636595.113555 -0.010827 0.137064 0.106910 
1403636595.213556 -0.010392 0.136622 0.107532 
1403636595.313555 -0.010162 0.139952 0.107758 
1403636595.413555 -0.010116 0.137647 0.107922 
1403636595.513556 -0.008839 0.119645 0.110568 
1403636595.663556 -0.009127 0.118049 0.110018 
1403636595.763556 -0.009196 0.116764 0.109842 
1403636595.863556 -0.010989 0.157563 0.105188 
1403636595.963556 -0.010976 0.156733 0.105163 
1403636596.063555 -0.011587 0.155380 0.104090 
